<?xml version="1.0"?>
<opencv_storage>
<cascade>
  <stageType>BOOST</stageType>
  <featureType>LBP</featureType>
  <height>24</height>
  <width>32</width>
  <stageParams>
    <boostType>GAB</boostType>
    <minHitRate>9.9900001287460327e-01</minHitRate>
    <maxFalseAlarm>4.4999998807907104e-01</maxFalseAlarm>
    <weightTrimRate>9.4999999999999996e-01</weightTrimRate>
    <maxDepth>1</maxDepth>
    <maxWeakCount>100</maxWeakCount></stageParams>
  <featureParams>
    <maxCatCount>256</maxCatCount>
    <featSize>1</featSize></featureParams>
  <stageNum>14</stageNum>
  <stages>
    <!-- stage 0 -->
    <_>
      <maxWeakCount>3</maxWeakCount>
      <stageThreshold>-1.4284926652908325e+00</stageThreshold>
      <weakClassifiers>
        <_>
          <internalNodes>
            0 -1 29 -36317199 1562375429 -1052257807 -138422991
            -87307779 -611614589 -1030103043 -2140171</internalNodes>
          <leafValues>
            -9.2265194654464722e-01 2.0659554004669189e-01</leafValues></_>
        <_>
          <internalNodes>
            0 -1 5 -787227873 1464540419 -778972833 1467211095
            -100410695 -542390117 -788276745 -172752909</internalNodes>
          <leafValues>
            -8.3571457862854004e-01 4.6501815319061279e-01</leafValues></_>
        <_>
          <internalNodes>
            0 -1 11 -134488832 -6070297 -587073199 -135797769 -87307863
            -69498645 -467678328 -2098695</internalNodes>
          <leafValues>
            -7.9937368631362915e-01 5.1920521259307861e-01</leafValues></_></weakClassifiers></_>
    <!-- stage 1 -->
    <_>
      <maxWeakCount>3</maxWeakCount>
      <stageThreshold>-1.3208857774734497e+00</stageThreshold>
      <weakClassifiers>
        <_>
          <internalNodes>
            0 -1 20 -1220282569 -6826217 -946997537 -2628121 2006044151
            -154170233 -68944913 -1</internalNodes>
          <leafValues>
            -8.3515393733978271e-01 3.1862068176269531e-01</leafValues></_>
        <_>
          <internalNodes>
            0 -1 14 -356582519 2147463543 -95160539 -3089 1789919095
            -268452673 -1094833647 -262145</internalNodes>
          <leafValues>
            -8.4742844104766846e-01 3.9641085267066956e-01</leafValues></_>
        <_>
          <internalNodes>
            0 -1 22 -262377 -1075850049 291200371 -2114049 -1073793280
            -23969 -1073742571 -8405185</internalNodes>
          <leafValues>
            -7.9207807779312134e-01 4.3043658137321472e-01</leafValues></_></weakClassifiers></_>
    <!-- stage 2 -->
    <_>
      <maxWeakCount>4</maxWeakCount>
      <stageThreshold>-2.0141377449035645e+00</stageThreshold>
      <weakClassifiers>
        <_>
          <internalNodes>
            0 -1 27 -538968065 -268792609 -548284065 -270796289 -6960651
            -3684129 -708862081 -706481165</internalNodes>
          <leafValues>
            -8.9279997348785400e-01 -4.8154093325138092e-02</leafValues></_>
        <_>
          <internalNodes>
            0 -1 4 117702439 -9964521 -133701641 -528965 -74252879
            -542122873 -571606025 -537396225</internalNodes>
          <leafValues>
            -7.5928950309753418e-01 3.6096546053886414e-01</leafValues></_>
        <_>
          <internalNodes>
            0 -1 43 -268468997 -18156605 -963708457 -403776009
            -1374534717 -201430574 69661047 -957546765</internalNodes>
          <leafValues>
            -7.7384704351425171e-01 4.0996333956718445e-01</leafValues></_>
        <_>
          <internalNodes>
            0 -1 81 -1947299905 -541169953 -42475524 -51849776
            -942670443 -552863235 -288102928 -1364554252</internalNodes>
          <leafValues>
            -7.7546823024749756e-01 4.1179871559143066e-01</leafValues></_></weakClassifiers></_>
    <!-- stage 3 -->
    <_>
      <maxWeakCount>5</maxWeakCount>
      <stageThreshold>-1.5911625623703003e+00</stageThreshold>
      <weakClassifiers>
        <_>
          <internalNodes>
            0 -1 63 -61543692 -9900864 298979835 -553416493 -1165438213
            -1149202428 -746078209 -3125</internalNodes>
          <leafValues>
            -8.2831114530563354e-01 8.0717489123344421e-02</leafValues></_>
        <_>
          <internalNodes>
            0 -1 65 -88326401 -8708417 421334037 -113833509 -543394337
            -54754645 -60948513 -62589081</internalNodes>
          <leafValues>
            -7.4676007032394409e-01 3.8327395915985107e-01</leafValues></_>
        <_>
          <internalNodes>
            0 -1 41 -1146159107 -1082401796 -1860764683 -44040203
            -478093868 -83901487 -119734307 -126701825</internalNodes>
          <leafValues>
            -6.0703039169311523e-01 5.3233748674392700e-01</leafValues></_>
        <_>
          <internalNodes>
            0 -1 26 -1280116941 -11413487 -657604097 2145897459
            -1303321933 -1078480189 -224027649 -1073875003</internalNodes>
          <leafValues>
            -6.8886089324951172e-01 4.6445897221565247e-01</leafValues></_>
        <_>
          <internalNodes>
            0 -1 50 -1141391425 562987158 -548772897 -149700598
            -76647673 933790741 1997170511 -1153422735</internalNodes>
          <leafValues>
            -7.5926268100738525e-01 4.3609529733657837e-01</leafValues></_></weakClassifiers></_>
    <!-- stage 4 -->
    <_>
      <maxWeakCount>6</maxWeakCount>
      <stageThreshold>-2.0192985534667969e+00</stageThreshold>
      <weakClassifiers>
        <_>
          <internalNodes>
            0 -1 78 -201853234 -216586750 -2139032322 -681995761
            -258162516 -1684492670 -1413293862 -81026385</internalNodes>
          <leafValues>
            -8.2373112440109253e-01 1.3253012299537659e-01</leafValues></_>
        <_>
          <internalNodes>
            0 -1 9 -1594906500 775631359 -302169159 -1107349223
            -171324487 -2054448453 -931075416 -298877157</internalNodes>
          <leafValues>
            -8.0442273616790771e-01 2.7332904934883118e-01</leafValues></_>
        <_>
          <internalNodes>
            0 -1 62 -769983790 8913080 1485103314 2087907408 -2117087490
            -909620864 -607927557 -212876325</internalNodes>
          <leafValues>
            -6.0500162839889526e-01 5.0034576654434204e-01</leafValues></_>
        <_>
          <internalNodes>
            0 -1 2 -1559308136 -1753770482 457294809 932380731 83982990
            -1146104721 -2131444737 733940799</internalNodes>
          <leafValues>
            -7.1717894077301025e-01 4.2575389146804810e-01</leafValues></_>
        <_>
          <internalNodes>
            0 -1 55 1591536378 -137436450 -653488230 1808757915
            -2102461816 -152664991 -352679176 -806553487</internalNodes>
          <leafValues>
            -6.8790739774703979e-01 4.5716777443885803e-01</leafValues></_>
        <_>
          <internalNodes>
            0 -1 24 -644155461 -787757177 -805053967 1538429003
            -607184388 -1719105397 -101795944 787151355</internalNodes>
          <leafValues>
            -6.0388368368148804e-01 5.5994492769241333e-01</leafValues></_></weakClassifiers></_>
    <!-- stage 5 -->
    <_>
      <maxWeakCount>7</maxWeakCount>
      <stageThreshold>-1.6943010091781616e+00</stageThreshold>
      <weakClassifiers>
        <_>
          <internalNodes>
            0 -1 47 -36175878 -676681790 -1828208232 -543174497
            -616305206 -8140563 -1292633409 -4196449</internalNodes>
          <leafValues>
            -7.7792125940322876e-01 1.8209876120090485e-01</leafValues></_>
        <_>
          <internalNodes>
            0 -1 3 -34361456 -1881048149 -1394677295 -269486113
            -708054085 -1121738657 -251924792 -842007554</internalNodes>
          <leafValues>
            -7.2949421405792236e-01 3.1880128383636475e-01</leafValues></_>
        <_>
          <internalNodes>
            0 -1 64 -239031272 1574769725 -245769507 420726231
            -632922675 1915643663 -11095049 -1625303585</internalNodes>
          <leafValues>
            -6.6597712039947510e-01 4.1040995717048645e-01</leafValues></_>
        <_>
          <internalNodes>
            0 -1 19 666596913 -510496174 -712385025 -20621893 982223538
            -1903476717 973331451 -30160781</internalNodes>
          <leafValues>
            -6.9728964567184448e-01 3.9486655592918396e-01</leafValues></_>
        <_>
          <internalNodes>
            0 -1 49 -11994497 -899511630 852530126 -437133074 1556998116
            -939489788 -196978689 -975966857</internalNodes>
          <leafValues>
            -6.3974267244338989e-01 4.8084512352943420e-01</leafValues></_>
        <_>
          <internalNodes>
            0 -1 56 -889196821 -614938106 -620704257 -6313893 -340070477
            1461909920 -2004177154 -227100102</internalNodes>
          <leafValues>
            -5.8804053068161011e-01 5.1893967390060425e-01</leafValues></_>
        <_>
          <internalNodes>
            0 -1 33 -537209669 -237256681 1351212474 135354619
            -278047088 -89396717 -563066668 -1079448372</internalNodes>
          <leafValues>
            -7.1113121509552002e-01 4.2290243506431580e-01</leafValues></_></weakClassifiers></_>
    <!-- stage 6 -->
    <_>
      <maxWeakCount>6</maxWeakCount>
      <stageThreshold>-1.9086956977844238e+00</stageThreshold>
      <weakClassifiers>
        <_>
          <internalNodes>
            0 -1 39 -45162787 -35387 -752777731 -604777789 -38216452
            -6964687 -1144987649 -394821</internalNodes>
          <leafValues>
            -7.8009790182113647e-01 1.4537444710731506e-01</leafValues></_>
        <_>
          <internalNodes>
            0 -1 42 -276681993 1057860538 -1669101161 -941102 -663291042
            2067784521 -1737163265 -1326425537</internalNodes>
          <leafValues>
            -7.8275644779205322e-01 2.2804863750934601e-01</leafValues></_>
        <_>
          <internalNodes>
            0 -1 28 -168830014 -173065246 -143164016 -747651458
            -672950326 399300556 -220736278 -136327201</internalNodes>
          <leafValues>
            -4.9138587713241577e-01 5.7069557905197144e-01</leafValues></_>
        <_>
          <internalNodes>
            0 -1 10 -54068064 -1073876520 -1455557668 -404762115
            -274748531 -1620327475 1054522504 215874489</internalNodes>
          <leafValues>
            -8.0581796169281006e-01 3.3890238404273987e-01</leafValues></_>
        <_>
          <internalNodes>
            0 -1 35 400279367 -721452720 1494303191 1900437889
            -1427964936 -1043873608 1737126838 -73741927</internalNodes>
          <leafValues>
            -5.4207944869995117e-01 5.0695103406906128e-01</leafValues></_>
        <_>
          <internalNodes>
            0 -1 72 -185703230 -545029336 1360191067 -178797398
            -894653268 -569718727 -2118598706 -1475834870</internalNodes>
          <leafValues>
            -6.6208350658416748e-01 4.3255251646041870e-01</leafValues></_></weakClassifiers></_>
    <!-- stage 7 -->
    <_>
      <maxWeakCount>7</maxWeakCount>
      <stageThreshold>-1.7428246736526489e+00</stageThreshold>
      <weakClassifiers>
        <_>
          <internalNodes>
            0 -1 30 -3934345 1358952415 -175052033 -1142443285
            -641357601 -627137873 -377118547 -103286545</internalNodes>
          <leafValues>
            -7.9625213146209717e-01 5.5487051606178284e-02</leafValues></_>
        <_>
          <internalNodes>
            0 -1 36 -203951885 1904179195 1435353207 1996478975
            -96511951 -592447305 2133851635 -67110127</internalNodes>
          <leafValues>
            -7.0312631130218506e-01 3.0630874633789062e-01</leafValues></_>
        <_>
          <internalNodes>
            0 -1 77 -773858098 -224801030 -2117873209 -237276469
            2068599172 715916952 -615779646 -586157282</internalNodes>
          <leafValues>
            -5.8499783277511597e-01 4.6888449788093567e-01</leafValues></_>
        <_>
          <internalNodes>
            0 -1 80 -276861620 443477483 -285220306 -16888834 -67242100
            -1428426613 -607594504 -1349591154</internalNodes>
          <leafValues>
            -6.8077224493026733e-01 3.9604875445365906e-01</leafValues></_>
        <_>
          <internalNodes>
            0 -1 54 -25973744 -12395078 -619890377 1998608697 -31353712
            -1308620037 -67384585 -8913937</internalNodes>
          <leafValues>
            -5.4436135292053223e-01 5.0580453872680664e-01</leafValues></_>
        <_>
          <internalNodes>
            0 -1 25 -1546582159 1803118082 223334221 -1378023473
            -1451003182 2135818466 1803906734 -268614817</internalNodes>
          <leafValues>
            -6.6733598709106445e-01 4.2294666171073914e-01</leafValues></_>
        <_>
          <internalNodes>
            0 -1 76 -29376405 -928493166 1385382138 1914214666
            -481572873 -420703348 1503636179 216791807</internalNodes>
          <leafValues>
            -6.8103545904159546e-01 4.1986805200576782e-01</leafValues></_></weakClassifiers></_>
    <!-- stage 8 -->
    <_>
      <maxWeakCount>7</maxWeakCount>
      <stageThreshold>-1.5641698837280273e+00</stageThreshold>
      <weakClassifiers>
        <_>
          <internalNodes>
            0 -1 34 -2248964 -36860773 -1402421051 -135312995 -86212131
            -1858633 -84891137 -71303169</internalNodes>
          <leafValues>
            -7.7616375684738159e-01 8.2287311553955078e-02</leafValues></_>
        <_>
          <internalNodes>
            0 -1 66 -1126170881 -25186561 2039677015 -11593733
            -1149785345 -55271019 2048715647 -631374049</internalNodes>
          <leafValues>
            -5.8315086364746094e-01 4.1692522168159485e-01</leafValues></_>
        <_>
          <internalNodes>
            0 -1 48 2067193339 1870484281 -1314291777 809136417
            -14185003 997948533 1936133983 2118089526</internalNodes>
          <leafValues>
            -6.8413621187210083e-01 3.5643151402473450e-01</leafValues></_>
        <_>
          <internalNodes>
            0 -1 40 1067081333 2082149430 252927573 -857910689
            -1624646787 -5359067 -1085215489 -34444677</internalNodes>
          <leafValues>
            -6.1369436979293823e-01 3.9812308549880981e-01</leafValues></_>
        <_>
          <internalNodes>
            0 -1 37 -134225670 -538981632 -602663052 -113703474
            -701981552 -680381952 1729164028 -134873217</internalNodes>
          <leafValues>
            -5.1819854974746704e-01 4.9452513456344604e-01</leafValues></_>
        <_>
          <internalNodes>
            0 -1 59 -1113680000 -842658403 -52636201 2112572383
            785334156 1592531484 -1297436161 1529542389</internalNodes>
          <leafValues>
            -6.6876822710037231e-01 3.8569349050521851e-01</leafValues></_>
        <_>
          <internalNodes>
            0 -1 71 -360204601 1364254647 -116721508 254608175
            -760945457 1486199923 1730395791 1505525710</internalNodes>
          <leafValues>
            -6.0305011272430420e-01 4.4134715199470520e-01</leafValues></_></weakClassifiers></_>
    <!-- stage 9 -->
    <_>
      <maxWeakCount>6</maxWeakCount>
      <stageThreshold>-1.2858430147171021e+00</stageThreshold>
      <weakClassifiers>
        <_>
          <internalNodes>
            0 -1 13 -123733541 1873785847 1619200479 -5590361 -375670017
            -340578319 -1952191489 -3412997</internalNodes>
          <leafValues>
            -7.3313164710998535e-01 2.9705214500427246e-01</leafValues></_>
        <_>
          <internalNodes>
            0 -1 17 -268461285 -185255521 -1043081891 -103417515
            -1681124687 -2135139913 -85202310 -83891699</internalNodes>
          <leafValues>
            -6.5498882532119751e-01 2.9507526755332947e-01</leafValues></_>
        <_>
          <internalNodes>
            0 -1 23 -318782461 -486804481 -204481720 -1612975108
            -118256112 -1371878402 -106955243 -1346633896</internalNodes>
          <leafValues>
            -7.0432233810424805e-01 3.3144241571426392e-01</leafValues></_>
        <_>
          <internalNodes>
            0 -1 31 1068410762 -915773972 332235936 -1286878844
            1472705422 1396836992 1090825966 324480923</internalNodes>
          <leafValues>
            -7.4332427978515625e-01 3.0024102330207825e-01</leafValues></_>
        <_>
          <internalNodes>
            0 -1 57 -1734676093 -1332879221 284545503 -1565855169
            -34938379 -70373356 1858885886 1784050751</internalNodes>
          <leafValues>
            -7.4468576908111572e-01 3.5167694091796875e-01</leafValues></_>
        <_>
          <internalNodes>
            0 -1 74 -171995848 -4935779 403954129 1572813769 -838083092
            -877078839 -299631683 1224563036</internalNodes>
          <leafValues>
            -7.3478424549102783e-01 3.2825848460197449e-01</leafValues></_></weakClassifiers></_>
    <!-- stage 10 -->
    <_>
      <maxWeakCount>7</maxWeakCount>
      <stageThreshold>-1.3433634042739868e+00</stageThreshold>
      <weakClassifiers>
        <_>
          <internalNodes>
            0 -1 7 -67964977 2080325119 -1098859905 -77618569 -73422085
            -1696882497 -561387265 -52434241</internalNodes>
          <leafValues>
            -7.3844283819198608e-01 2.9694321751594543e-01</leafValues></_>
        <_>
          <internalNodes>
            0 -1 6 -1107883240 -771788409 -121111117 -111151857
            -1158283312 -1531321609 -341061720 -16778401</internalNodes>
          <leafValues>
            -7.9021418094635010e-01 1.9634954631328583e-01</leafValues></_>
        <_>
          <internalNodes>
            0 -1 69 -778332422 -35683838 5036204 -1113020 -143465598
            -1224539612 1904648846 -685784693</internalNodes>
          <leafValues>
            -5.3616636991500854e-01 4.4158658385276794e-01</leafValues></_>
        <_>
          <internalNodes>
            0 -1 15 1843642321 -37037 1878241205 -268697611 -1418134637
            -276824209 368781295 -138682477</internalNodes>
          <leafValues>
            -4.3784096837043762e-01 5.5114674568176270e-01</leafValues></_>
        <_>
          <internalNodes>
            0 -1 75 1610547191 -581145601 -702386801 -376045 1919841022
            1489558459 1845945275 2145956659</internalNodes>
          <leafValues>
            -5.2477288246154785e-01 4.9127206206321716e-01</leafValues></_>
        <_>
          <internalNodes>
            0 -1 58 -966472986 -1030764050 1822982111 1136983471
            -1429471258 -277364266 -16409 -671088657</internalNodes>
          <leafValues>
            -4.9636894464492798e-01 5.0515186786651611e-01</leafValues></_>
        <_>
          <internalNodes>
            0 -1 70 536060916 -564347932 -619463632 1076346367
            1980747001 -69448724 1384834019 319249909</internalNodes>
          <leafValues>
            -7.7286159992218018e-01 3.2936891913414001e-01</leafValues></_></weakClassifiers></_>
    <!-- stage 11 -->
    <_>
      <maxWeakCount>6</maxWeakCount>
      <stageThreshold>-1.0586235523223877e+00</stageThreshold>
      <weakClassifiers>
        <_>
          <internalNodes>
            0 -1 1 -22028881 -540316705 -773466145 -673250273 -72381045
            -539260417 -570708549 -536872193</internalNodes>
          <leafValues>
            -7.3772490024566650e-01 2.7194860577583313e-01</leafValues></_>
        <_>
          <internalNodes>
            0 -1 45 -268439813 -268967041 -708379049 -1410728217
            -661851072 -88103753 -24186761 -957555981</internalNodes>
          <leafValues>
            -7.3026967048645020e-01 2.4392502009868622e-01</leafValues></_>
        <_>
          <internalNodes>
            0 -1 51 536760808 -4201628 -183512609 -69656419 807982525
            -71741604 -172957697 -1183835651</internalNodes>
          <leafValues>
            -6.8120831251144409e-01 3.0807524919509888e-01</leafValues></_>
        <_>
          <internalNodes>
            0 -1 21 1743900659 928485367 797928267 -268440973
            -1580873311 1651492909 -2118145427 -441603475</internalNodes>
          <leafValues>
            -6.3453811407089233e-01 3.5944700241088867e-01</leafValues></_>
        <_>
          <internalNodes>
            0 -1 73 -5309240 -207895896 298033346 -254863157 -1444173686
            -1163189610 -1363420209 -821881317</internalNodes>
          <leafValues>
            -5.4398614168167114e-01 4.5057451725006104e-01</leafValues></_>
        <_>
          <internalNodes>
            0 -1 68 -812681334 534551483 -364719224 -269534974
            -1409376269 7695163 -1543298 1603285862</internalNodes>
          <leafValues>
            -6.8835973739624023e-01 3.7349730730056763e-01</leafValues></_></weakClassifiers></_>
    <!-- stage 12 -->
    <_>
      <maxWeakCount>8</maxWeakCount>
      <stageThreshold>-1.3270663022994995e+00</stageThreshold>
      <weakClassifiers>
        <_>
          <internalNodes>
            0 -1 46 -235667457 -1625311265 -1599679237 -536872481
            -25952273 -1412981441 -173567313 -603999025</internalNodes>
          <leafValues>
            -7.3573392629623413e-01 2.5373134016990662e-01</leafValues></_>
        <_>
          <internalNodes>
            0 -1 61 -18138113 -884522593 -233040012 -74774785 2080226268
            -538052111 -455232617 -565184515</internalNodes>
          <leafValues>
            -5.4579401016235352e-01 3.6833027005195618e-01</leafValues></_>
        <_>
          <internalNodes>
            0 -1 12 -417464607 -542114587 -2024546333 794290413
            -1990416246 1224677399 -1152139381 1709537833</internalNodes>
          <leafValues>
            -5.5291467905044556e-01 4.1883575916290283e-01</leafValues></_>
        <_>
          <internalNodes>
            0 -1 52 -446699778 -1430587210 2124348622 -1510185736
            -1284016785 -16835593 2121885143 -303865866</internalNodes>
          <leafValues>
            -6.6035610437393188e-01 3.5476669669151306e-01</leafValues></_>
        <_>
          <internalNodes>
            0 -1 18 -24379635 2032849755 -1937464835 -129439115
            418102067 -608439126 -206980468 -1146127491</internalNodes>
          <leafValues>
            -6.1412608623504639e-01 4.1605326533317566e-01</leafValues></_>
        <_>
          <internalNodes>
            0 -1 44 899552593 -782282413 -1809852069 1895799129
            -122129933 -579215209 2070197873 -803196593</internalNodes>
          <leafValues>
            -6.9232463836669922e-01 3.6165145039558411e-01</leafValues></_>
        <_>
          <internalNodes>
            0 -1 38 1574782416 -105620267 -1055705187 1222987164
            -1246898288 2147038904 -779361610 1192073612</internalNodes>
          <leafValues>
            -8.1439805030822754e-01 2.7516761422157288e-01</leafValues></_>
        <_>
          <internalNodes>
            0 -1 67 -100611956 1507823110 -762920705 -170695495
            -1671906260 -241186418 -17891857 -561468772</internalNodes>
          <leafValues>
            -6.4259570837020874e-01 3.5628688335418701e-01</leafValues></_></weakClassifiers></_>
    <!-- stage 13 -->
    <_>
      <maxWeakCount>7</maxWeakCount>
      <stageThreshold>-1.5802685022354126e+00</stageThreshold>
      <weakClassifiers>
        <_>
          <internalNodes>
            0 -1 0 -553648673 -544224033 2133661951 -7405329 -84172097
            -541087585 -1409562373 -4216081</internalNodes>
          <leafValues>
            -7.0809251070022583e-01 5.5244755744934082e-01</leafValues></_>
        <_>
          <internalNodes>
            0 -1 79 -205800758 -640081509 193694424 -1552560613
            -1143021878 -37329910 -645204598 -212095477</internalNodes>
          <leafValues>
            -5.7269001007080078e-01 3.4700259566307068e-01</leafValues></_>
        <_>
          <internalNodes>
            0 -1 8 -1497419728 1073426365 -305503361 -1755321031
            -404914632 -1479831367 -324044120 -1944364097</internalNodes>
          <leafValues>
            -7.3108583688735962e-01 3.0517095327377319e-01</leafValues></_>
        <_>
          <internalNodes>
            0 -1 53 -541859861 -339819125 897937391 2125080586
            1195630917 946551601 997695855 -192431297</internalNodes>
          <leafValues>
            -5.8091837167739868e-01 3.8415122032165527e-01</leafValues></_>
        <_>
          <internalNodes>
            0 -1 32 -167822217 -1848539997 1103363972 -1180587285
            1060060768 1261412665 -1150330300 -171</internalNodes>
          <leafValues>
            -7.5710123777389526e-01 3.2499459385871887e-01</leafValues></_>
        <_>
          <internalNodes>
            0 -1 60 2144294638 1931956796 -1375632618 -3709122
            -224985312 -751321040 -2108111893 -306316289</internalNodes>
          <leafValues>
            -5.7374852895736694e-01 4.2311054468154907e-01</leafValues></_>
        <_>
          <internalNodes>
            0 -1 16 521391888 -144747247 -1187474627 -34721 -1278227582
            -1146322621 149023368 -289678757</internalNodes>
          <leafValues>
            -6.0944056510925293e-01 4.0694403648376465e-01</leafValues></_></weakClassifiers></_></stages>
  <features>
    <_>
      <rect>
        0 6 9 3</rect></_>
    <_>
      <rect>
        1 4 9 4</rect></_>
    <_>
      <rect>
        2 1 3 4</rect></_>
    <_>
      <rect>
        2 11 4 2</rect></_>
    <_>
      <rect>
        3 2 7 5</rect></_>
    <_>
      <rect>
        3 5 8 4</rect></_>
    <_>
      <rect>
        3 6 4 3</rect></_>
    <_>
      <rect>
        3 6 7 4</rect></_>
    <_>
      <rect>
        3 7 3 2</rect></_>
    <_>
      <rect>
        3 8 3 2</rect></_>
    <_>
      <rect>
        3 9 3 3</rect></_>
    <_>
      <rect>
        3 10 4 2</rect></_>
    <_>
      <rect>
        4 3 5 2</rect></_>
    <_>
      <rect>
        4 9 7 3</rect></_>
    <_>
      <rect>
        4 10 5 3</rect></_>
    <_>
      <rect>
        5 2 4 2</rect></_>
    <_>
      <rect>
        5 4 3 2</rect></_>
    <_>
      <rect>
        5 5 4 3</rect></_>
    <_>
      <rect>
        5 7 5 4</rect></_>
    <_>
      <rect>
        6 1 6 3</rect></_>
    <_>
      <rect>
        6 1 6 5</rect></_>
    <_>
      <rect>
        6 3 8 5</rect></_>
    <_>
      <rect>
        7 8 3 2</rect></_>
    <_>
      <rect>
        7 9 2 3</rect></_>
    <_>
      <rect>
        7 14 3 3</rect></_>
    <_>
      <rect>
        8 0 7 5</rect></_>
    <_>
      <rect>
        8 2 5 4</rect></_>
    <_>
      <rect>
        8 7 7 3</rect></_>
    <_>
      <rect>
        8 10 1 1</rect></_>
    <_>
      <rect>
        9 0 3 8</rect></_>
    <_>
      <rect>
        9 3 4 6</rect></_>
    <_>
      <rect>
        9 10 1 1</rect></_>
    <_>
      <rect>
        9 12 2 2</rect></_>
    <_>
      <rect>
        9 14 2 2</rect></_>
    <_>
      <rect>
        10 3 7 7</rect></_>
    <_>
      <rect>
        10 15 6 2</rect></_>
    <_>
      <rect>
        11 7 2 2</rect></_>
    <_>
      <rect>
        11 11 1 1</rect></_>
    <_>
      <rect>
        11 13 5 3</rect></_>
    <_>
      <rect>
        11 15 4 2</rect></_>
    <_>
      <rect>
        12 1 5 3</rect></_>
    <_>
      <rect>
        12 4 4 6</rect></_>
    <_>
      <rect>
        12 4 5 5</rect></_>
    <_>
      <rect>
        12 5 5 3</rect></_>
    <_>
      <rect>
        12 6 3 1</rect></_>
    <_>
      <rect>
        12 6 4 2</rect></_>
    <_>
      <rect>
        12 8 1 1</rect></_>
    <_>
      <rect>
        12 9 1 1</rect></_>
    <_>
      <rect>
        12 13 4 2</rect></_>
    <_>
      <rect>
        13 9 3 2</rect></_>
    <_>
      <rect>
        13 9 3 3</rect></_>
    <_>
      <rect>
        13 14 3 3</rect></_>
    <_>
      <rect>
        14 10 3 2</rect></_>
    <_>
      <rect>
        14 12 3 2</rect></_>
    <_>
      <rect>
        14 16 3 1</rect></_>
    <_>
      <rect>
        15 5 3 3</rect></_>
    <_>
      <rect>
        15 6 4 3</rect></_>
    <_>
      <rect>
        15 10 4 3</rect></_>
    <_>
      <rect>
        15 11 1 1</rect></_>
    <_>
      <rect>
        15 16 4 2</rect></_>
    <_>
      <rect>
        16 4 3 3</rect></_>
    <_>
      <rect>
        16 6 5 4</rect></_>
    <_>
      <rect>
        16 10 1 2</rect></_>
    <_>
      <rect>
        16 11 1 1</rect></_>
    <_>
      <rect>
        16 14 3 2</rect></_>
    <_>
      <rect>
        17 5 4 4</rect></_>
    <_>
      <rect>
        17 6 4 3</rect></_>
    <_>
      <rect>
        17 7 1 1</rect></_>
    <_>
      <rect>
        17 8 3 2</rect></_>
    <_>
      <rect>
        17 13 1 1</rect></_>
    <_>
      <rect>
        17 14 4 2</rect></_>
    <_>
      <rect>
        18 5 3 2</rect></_>
    <_>
      <rect>
        18 8 1 1</rect></_>
    <_>
      <rect>
        18 9 1 1</rect></_>
    <_>
      <rect>
        18 11 2 4</rect></_>
    <_>
      <rect>
        19 7 3 2</rect></_>
    <_>
      <rect>
        19 8 3 3</rect></_>
    <_>
      <rect>
        19 9 1 1</rect></_>
    <_>
      <rect>
        19 10 1 1</rect></_>
    <_>
      <rect>
        19 11 1 1</rect></_>
    <_>
      <rect>
        22 6 3 2</rect></_>
    <_>
      <rect>
        22 9 3 3</rect></_></features></cascade>
</opencv_storage>
